<?xml version="1.0"?>
<opencv_storage>
<cascade>
  <stageType>BOOST</stageType>
  <featureType>HAAR</featureType>
  <height>20</height>
  <width>20</width>
  <stageParams>
    <boostType>GAB</boostType>
    <minHitRate>9.9900001287460327e-01</minHitRate>
    <maxFalseAlarm>5.0000000745058060e-02</maxFalseAlarm>
    <weightTrimRate>9.4999999999999996e-01</weightTrimRate>
    <maxDepth>1</maxDepth>
    <maxWeakCount>100</maxWeakCount></stageParams>
  <featureParams>
    <maxCatCount>0</maxCatCount>
    <featSize>1</featSize>
    <mode>ALL</mode></featureParams>
  <stageNum>3</stageNum>
  <stages>
    <!-- stage 0 -->
    <_>
      <maxWeakCount>5</maxWeakCount>
      <stageThreshold>-2.8017401695251465e-01</stageThreshold>
      <weakClassifiers>
        <_>
          <internalNodes>
            0 -1 10 1.4657955616712570e-02</internalNodes>
          <leafValues>
            -6.8727272748947144e-01 8.3999997377395630e-01</leafValues></_>
        <_>
          <internalNodes>
            0 -1 3 3.8915933109819889e-03</internalNodes>
          <leafValues>
            -5.7872658967971802e-01 9.2688894271850586e-01</leafValues></_>
        <_>
          <internalNodes>
            0 -1 0 3.6188192665576935e-02</internalNodes>
          <leafValues>
            -9.7391414642333984e-01 5.7222390174865723e-01</leafValues></_>
        <_>
          <internalNodes>
            0 -1 9 1.0821996256709099e-02</internalNodes>
          <leafValues>
            -5.1217705011367798e-01 9.8680061101913452e-01</leafValues></_>
        <_>
          <internalNodes>
            0 -1 8 -1.2109728530049324e-02</internalNodes>
          <leafValues>
            9.7010779380798340e-01 -5.5433386564254761e-01</leafValues></_></weakClassifiers></_>
    <!-- stage 1 -->
    <_>
      <maxWeakCount>5</maxWeakCount>
      <stageThreshold>-1.9312416017055511e-01</stageThreshold>
      <weakClassifiers>
        <_>
          <internalNodes>
            0 -1 11 2.5131721049547195e-03</internalNodes>
          <leafValues>
            -6.5714287757873535e-01 8.3636361360549927e-01</leafValues></_>
        <_>
          <internalNodes>
            0 -1 6 4.3566916137933731e-03</internalNodes>
          <leafValues>
            -5.7674974203109741e-01 8.8585376739501953e-01</leafValues></_>
        <_>
          <internalNodes>
            0 -1 2 2.0858688279986382e-02</internalNodes>
          <leafValues>
            6.4825159311294556e-01 -8.4431636333465576e-01</leafValues></_>
        <_>
          <internalNodes>
            0 -1 4 -4.5328512787818909e-03</internalNodes>
          <leafValues>
            9.4476294517517090e-01 -4.8919582366943359e-01</leafValues></_>
        <_>
          <internalNodes>
            0 -1 5 -2.7298465371131897e-02</internalNodes>
          <leafValues>
            9.9266970157623291e-01 -5.2228164672851562e-01</leafValues></_></weakClassifiers></_>
    <!-- stage 2 -->
    <_>
      <maxWeakCount>6</maxWeakCount>
      <stageThreshold>3.6790561676025391e-01</stageThreshold>
      <weakClassifiers>
        <_>
          <internalNodes>
            0 -1 13 4.6761371195316315e-03</internalNodes>
          <leafValues>
            -6.0409557819366455e-01 8.5507243871688843e-01</leafValues></_>
        <_>
          <internalNodes>
            0 -1 15 -4.8880465328693390e-05</internalNodes>
          <leafValues>
            -1. 4.4617825746536255e-01</leafValues></_>
        <_>
          <internalNodes>
            0 -1 12 -6.3606910407543182e-03</internalNodes>
          <leafValues>
            9.3354320526123047e-01 -4.8484030365943909e-01</leafValues></_>
        <_>
          <internalNodes>
            0 -1 7 -1.1783279478549957e-02</internalNodes>
          <leafValues>
            1. -4.3242219090461731e-01</leafValues></_>
        <_>
          <internalNodes>
            0 -1 1 2.7354871854186058e-02</internalNodes>
          <leafValues>
            5.2378225326538086e-01 -9.7704690694808960e-01</leafValues></_>
        <_>
          <internalNodes>
            0 -1 14 -2.6661906391382217e-02</internalNodes>
          <leafValues>
            9.3239772319793701e-01 -4.7145786881446838e-01</leafValues></_></weakClassifiers></_></stages>
  <features>
    <_>
      <rects>
        <_>
          0 0 20 20 -1.</_>
        <_>
          5 0 10 20 2.</_></rects>
      <tilted>0</tilted></_>
    <_>
      <rects>
        <_>
          2 6 16 8 -1.</_>
        <_>
          10 6 8 8 2.</_></rects>
      <tilted>0</tilted></_>
    <_>
      <rects>
        <_>
          2 7 15 7 -1.</_>
        <_>
          7 7 5 7 3.</_></rects>
      <tilted>0</tilted></_>
    <_>
      <rects>
        <_>
          6 8 3 1 -1.</_>
        <_>
          7 8 1 1 3.</_></rects>
      <tilted>0</tilted></_>
    <_>
      <rects>
        <_>
          6 10 1 3 -1.</_>
        <_>
          6 11 1 1 3.</_></rects>
      <tilted>0</tilted></_>
    <_>
      <rects>
        <_>
          6 10 12 2 -1.</_>
        <_>
          6 10 6 1 2.</_>
        <_>
          12 11 6 1 2.</_></rects>
      <tilted>0</tilted></_>
    <_>
      <rects>
        <_>
          7 6 3 1 -1.</_>
        <_>
          8 6 1 1 3.</_></rects>
      <tilted>0</tilted></_>
    <_>
      <rects>
        <_>
          8 13 3 1 -1.</_>
        <_>
          9 13 1 1 3.</_></rects>
      <tilted>0</tilted></_>
    <_>
      <rects>
        <_>
          8 13 3 5 -1.</_>
        <_>
          9 13 1 5 3.</_></rects>
      <tilted>0</tilted></_>
    <_>
      <rects>
        <_>
          9 6 3 2 -1.</_>
        <_>
          10 6 1 2 3.</_></rects>
      <tilted>0</tilted></_>
    <_>
      <rects>
        <_>
          9 7 3 3 -1.</_>
        <_>
          10 8 1 1 9.</_></rects>
      <tilted>0</tilted></_>
    <_>
      <rects>
        <_>
          9 10 1 2 -1.</_>
        <_>
          9 11 1 1 2.</_></rects>
      <tilted>0</tilted></_>
    <_>
      <rects>
        <_>
          9 14 3 1 -1.</_>
        <_>
          10 14 1 1 3.</_></rects>
      <tilted>0</tilted></_>
    <_>
      <rects>
        <_>
          10 5 3 1 -1.</_>
        <_>
          11 5 1 1 3.</_></rects>
      <tilted>0</tilted></_>
    <_>
      <rects>
        <_>
          12 7 3 3 -1.</_>
        <_>
          13 8 1 1 9.</_></rects>
      <tilted>0</tilted></_>
    <_>
      <rects>
        <_>
          19 0 1 4 -1.</_>
        <_>
          19 2 1 2 2.</_></rects>
      <tilted>0</tilted></_></features></cascade>
</opencv_storage>
